<?xml version="1.0"?>
<opencv_storage>
<cascade>
  <stageType>BOOST</stageType>
  <featureType>HAAR</featureType>
  <height>24</height>
  <width>24</width>
  <stageParams>
    <boostType>GAB</boostType>
    <minHitRate>9.9500000476837158e-01</minHitRate>
    <maxFalseAlarm>5.0000000000000000e-01</maxFalseAlarm>
    <weightTrimRate>9.4999998807907104e-01</weightTrimRate>
    <maxDepth>1</maxDepth>
    <maxWeakCount>100</maxWeakCount></stageParams>
  <featureParams>
    <maxCatCount>0</maxCatCount>
    <featSize>1</featSize>
    <mode>BASIC</mode></featureParams>
  <stageNum>3</stageNum>
  <stages>
    <!-- stage 0 -->
    <_>
      <maxWeakCount>2</maxWeakCount>
      <stageThreshold>-4.3883301317691803e-02</stageThreshold>
      <weakClassifiers>
        <_>
          <internalNodes>
            0 -1 4 -4.0570980310440063e-01</internalNodes>
          <leafValues>
            9.7435897588729858e-01 -9.9800002574920654e-01</leafValues></_>
        <_>
          <internalNodes>
            0 -1 7 -2.6824840903282166e-01</internalNodes>
          <leafValues>
            9.5411670207977295e-01 -9.9796277284622192e-01</leafValues></_></weakClassifiers></_>
    <!-- stage 1 -->
    <_>
      <maxWeakCount>2</maxWeakCount>
      <stageThreshold>-4.0234056115150452e-01</stageThreshold>
      <weakClassifiers>
        <_>
          <internalNodes>
            0 -1 2 -2.9077392071485519e-02</internalNodes>
          <leafValues>
            8.2857143878936768e-01 -9.7222220897674561e-01</leafValues></_>
        <_>
          <internalNodes>
            0 -1 5 1.2806116044521332e-01</internalNodes>
          <leafValues>
            -1. 5.6988167762756348e-01</leafValues></_></weakClassifiers></_>
    <!-- stage 2 -->
    <_>
      <maxWeakCount>4</maxWeakCount>
      <stageThreshold>-1.8953982591629028e+00</stageThreshold>
      <weakClassifiers>
        <_>
          <internalNodes>
            0 -1 0 1.0794591903686523e-01</internalNodes>
          <leafValues>
            -9.4536584615707397e-01 8.8679248094558716e-01</leafValues></_>
        <_>
          <internalNodes>
            0 -1 6 -3.2923623919487000e-02</internalNodes>
          <leafValues>
            9.4951969385147095e-01 -8.4665131568908691e-01</leafValues></_>
        <_>
          <internalNodes>
            0 -1 1 6.6538706421852112e-02</internalNodes>
          <leafValues>
            -7.5549703836441040e-01 8.1070357561111450e-01</leafValues></_>
        <_>
          <internalNodes>
            0 -1 3 -2.8483313322067261e-01</internalNodes>
          <leafValues>
            6.6214835643768311e-01 -9.1408467292785645e-01</leafValues></_></weakClassifiers></_></stages>
  <features>
    <_>
      <rects>
        <_>
          6 5 13 6 -1.</_>
        <_>
          6 7 13 2 3.</_></rects>
      <tilted>0</tilted></_>
    <_>
      <rects>
        <_>
          6 5 14 6 -1.</_>
        <_>
          6 7 14 2 3.</_></rects>
      <tilted>0</tilted></_>
    <_>
      <rects>
        <_>
          7 10 12 2 -1.</_>
        <_>
          11 10 4 2 3.</_></rects>
      <tilted>0</tilted></_>
    <_>
      <rects>
        <_>
          8 0 10 22 -1.</_>
        <_>
          8 11 10 11 2.</_></rects>
      <tilted>0</tilted></_>
    <_>
      <rects>
        <_>
          8 6 11 18 -1.</_>
        <_>
          8 12 11 6 3.</_></rects>
      <tilted>0</tilted></_>
    <_>
      <rects>
        <_>
          9 1 14 22 -1.</_>
        <_>
          16 1 7 22 2.</_></rects>
      <tilted>0</tilted></_>
    <_>
      <rects>
        <_>
          10 4 6 6 -1.</_>
        <_>
          10 6 6 2 3.</_></rects>
      <tilted>0</tilted></_>
    <_>
      <rects>
        <_>
          12 6 7 18 -1.</_>
        <_>
          12 12 7 6 3.</_></rects>
      <tilted>0</tilted></_></features></cascade>
</opencv_storage>
